digraph Tree {
node [shape=box] ;
0 [label="X[2] <= 0.86\ngini = 0.17\nsamples = 4000\nvalue = [3625, 375]"] ;
1 [label="X[4] <= 0.582\ngini = 0.041\nsamples = 3217\nvalue = [3149, 68]"] ;
0 -> 1 [labeldistance=2.5, labelangle=45, headlabel="True"] ;
2 [label="X[2] <= 0.708\ngini = 0.008\nsamples = 2974\nvalue = [2962, 12]"] ;
1 -> 2 ;
3 [label="gini = 0.0\nsamples = 2892\nvalue = [2892, 0]"] ;
2 -> 3 ;
4 [label="X[5] <= -0.453\ngini = 0.25\nsamples = 82\nvalue = [70, 12]"] ;
2 -> 4 ;
5 [label="X[3] <= 0.976\ngini = 0.1\nsamples = 38\nvalue = [36, 2]"] ;
4 -> 5 ;
6 [label="gini = 0.0\nsamples = 36\nvalue = [36, 0]"] ;
5 -> 6 ;
7 [label="gini = 0.0\nsamples = 2\nvalue = [0, 2]"] ;
5 -> 7 ;
8 [label="X[4] <= -0.161\ngini = 0.351\nsamples = 44\nvalue = [34, 10]"] ;
4 -> 8 ;
9 [label="X[9] <= -0.203\ngini = 0.48\nsamples = 15\nvalue = [9, 6]"] ;
8 -> 9 ;
10 [label="gini = 0.0\nsamples = 6\nvalue = [6, 0]"] ;
9 -> 10 ;
11 [label="gini = 0.444\nsamples = 9\nvalue = [3, 6]"] ;
9 -> 11 ;
12 [label="X[2] <= 0.752\ngini = 0.238\nsamples = 29\nvalue = [25, 4]"] ;
8 -> 12 ;
13 [label="gini = 0.5\nsamples = 4\nvalue = [2, 2]"] ;
12 -> 13 ;
14 [label="gini = 0.147\nsamples = 25\nvalue = [23, 2]"] ;
12 -> 14 ;
15 [label="X[8] <= 1.853\ngini = 0.355\nsamples = 243\nvalue = [187, 56]"] ;
1 -> 15 ;
16 [label="X[2] <= 0.187\ngini = 0.306\nsamples = 223\nvalue = [181, 42]"] ;
15 -> 16 ;
17 [label="X[0] <= -1.507\ngini = 0.123\nsamples = 91\nvalue = [85, 6]"] ;
16 -> 17 ;
18 [label="gini = 0.0\nsamples = 1\nvalue = [0, 1]"] ;
17 -> 18 ;
19 [label="X[1] <= -1.005\ngini = 0.105\nsamples = 90\nvalue = [85, 5]"] ;
17 -> 19 ;
20 [label="gini = 0.346\nsamples = 9\nvalue = [7, 2]"] ;
19 -> 20 ;
21 [label="gini = 0.071\nsamples = 81\nvalue = [78, 3]"] ;
19 -> 21 ;
22 [label="X[3] <= 0.103\ngini = 0.397\nsamples = 132\nvalue = [96, 36]"] ;
16 -> 22 ;
23 [label="X[1] <= 1.177\ngini = 0.266\nsamples = 95\nvalue = [80, 15]"] ;
22 -> 23 ;
24 [label="gini = 0.193\nsamples = 83\nvalue = [74, 9]"] ;
23 -> 24 ;
25 [label="gini = 0.5\nsamples = 12\nvalue = [6, 6]"] ;
23 -> 25 ;
26 [label="X[0] <= 1.025\ngini = 0.491\nsamples = 37\nvalue = [16, 21]"] ;
22 -> 26 ;
27 [label="gini = 0.393\nsamples = 26\nvalue = [7, 19]"] ;
26 -> 27 ;
28 [label="gini = 0.298\nsamples = 11\nvalue = [9, 2]"] ;
26 -> 28 ;
29 [label="X[4] <= 1.097\ngini = 0.42\nsamples = 20\nvalue = [6, 14]"] ;
15 -> 29 ;
30 [label="gini = 0.0\nsamples = 8\nvalue = [0, 8]"] ;
29 -> 30 ;
31 [label="X[4] <= 1.211\ngini = 0.5\nsamples = 12\nvalue = [6, 6]"] ;
29 -> 31 ;
32 [label="gini = 0.0\nsamples = 3\nvalue = [3, 0]"] ;
31 -> 32 ;
33 [label="X[2] <= 0.48\ngini = 0.444\nsamples = 9\nvalue = [3, 6]"] ;
31 -> 33 ;
34 [label="gini = 0.48\nsamples = 5\nvalue = [3, 2]"] ;
33 -> 34 ;
35 [label="gini = 0.0\nsamples = 4\nvalue = [0, 4]"] ;
33 -> 35 ;
36 [label="X[5] <= -0.453\ngini = 0.477\nsamples = 783\nvalue = [476, 307]"] ;
0 -> 36 [labeldistance=2.5, labelangle=-45, headlabel="False"] ;
37 [label="X[3] <= 0.103\ngini = 0.201\nsamples = 522\nvalue = [463, 59]"] ;
36 -> 37 ;
38 [label="gini = 0.0\nsamples = 463\nvalue = [463, 0]"] ;
37 -> 38 ;
39 [label="gini = 0.0\nsamples = 59\nvalue = [0, 59]"] ;
37 -> 39 ;
40 [label="X[2] <= 0.925\ngini = 0.095\nsamples = 261\nvalue = [13, 248]"] ;
36 -> 40 ;
41 [label="X[1] <= 1.046\ngini = 0.497\nsamples = 24\nvalue = [13, 11]"] ;
40 -> 41 ;
42 [label="X[4] <= 0.497\ngini = 0.475\nsamples = 18\nvalue = [7, 11]"] ;
41 -> 42 ;
43 [label="X[1] <= -0.176\ngini = 0.486\nsamples = 12\nvalue = [7, 5]"] ;
42 -> 43 ;
44 [label="gini = 0.245\nsamples = 7\nvalue = [6, 1]"] ;
43 -> 44 ;
45 [label="gini = 0.32\nsamples = 5\nvalue = [1, 4]"] ;
43 -> 45 ;
46 [label="gini = 0.0\nsamples = 6\nvalue = [0, 6]"] ;
42 -> 46 ;
47 [label="gini = 0.0\nsamples = 6\nvalue = [6, 0]"] ;
41 -> 47 ;
48 [label="gini = 0.0\nsamples = 237\nvalue = [0, 237]"] ;
40 -> 48 ;
}